<?xml version="1.0"?>
<opencv_storage>
<cascade>
  <stageType>BOOST</stageType>
  <featureType>HAAR</featureType>
  <height>20</height>
  <width>20</width>
  <stageParams>
    <boostType>GAB</boostType>
    <minHitRate>9.4999998807907104e-01</minHitRate>
    <maxFalseAlarm>5.0000000000000000e-01</maxFalseAlarm>
    <weightTrimRate>9.4999999999999996e-01</weightTrimRate>
    <maxDepth>1</maxDepth>
    <maxWeakCount>100</maxWeakCount></stageParams>
  <featureParams>
    <maxCatCount>0</maxCatCount>
    <featSize>1</featSize>
    <mode>ALL</mode></featureParams>
  <stageNum>8</stageNum>
  <stages>
    <!-- stage 0 -->
    <_>
      <maxWeakCount>1</maxWeakCount>
      <stageThreshold>9.8554915189743042e-01</stageThreshold>
      <weakClassifiers>
        <_>
          <internalNodes>
            0 -1 5 -2.2628867626190186e-01</internalNodes>
          <leafValues>
            9.8554915189743042e-01 -9.3211489915847778e-01</leafValues></_></weakClassifiers></_>
    <!-- stage 1 -->
    <_>
      <maxWeakCount>1</maxWeakCount>
      <stageThreshold>8.9354151487350464e-01</stageThreshold>
      <weakClassifiers>
        <_>
          <internalNodes>
            0 -1 1 3.3751405775547028e-02</internalNodes>
          <leafValues>
            -8.2186233997344971e-01 8.9354151487350464e-01</leafValues></_></weakClassifiers></_>
    <!-- stage 2 -->
    <_>
      <maxWeakCount>2</maxWeakCount>
      <stageThreshold>9.2766337096691132e-02</stageThreshold>
      <weakClassifiers>
        <_>
          <internalNodes>
            0 -1 4 -3.8465335965156555e-01</internalNodes>
          <leafValues>
            9.2400968074798584e-01 -7.2939729690551758e-01</leafValues></_>
        <_>
          <internalNodes>
            0 -1 3 8.3350390195846558e-02</internalNodes>
          <leafValues>
            -8.3124333620071411e-01 8.6072194576263428e-01</leafValues></_></weakClassifiers></_>
    <!-- stage 3 -->
    <_>
      <maxWeakCount>2</maxWeakCount>
      <stageThreshold>-6.0662146657705307e-02</stageThreshold>
      <weakClassifiers>
        <_>
          <internalNodes>
            0 -1 7 5.5329985916614532e-02</internalNodes>
          <leafValues>
            -7.9768788814544678e-01 8.1148749589920044e-01</leafValues></_>
        <_>
          <internalNodes>
            0 -1 0 6.9896988570690155e-02</internalNodes>
          <leafValues>
            -8.2689964771270752e-01 7.3702573776245117e-01</leafValues></_></weakClassifiers></_>
    <!-- stage 4 -->
    <_>
      <maxWeakCount>1</maxWeakCount>
      <stageThreshold>7.7146911621093750e-01</stageThreshold>
      <weakClassifiers>
        <_>
          <internalNodes>
            0 -1 2 -8.1155434250831604e-02</internalNodes>
          <leafValues>
            -8.3775353431701660e-01 7.7146911621093750e-01</leafValues></_></weakClassifiers></_>
    <!-- stage 5 -->
    <_>
      <maxWeakCount>2</maxWeakCount>
      <stageThreshold>6.2675392255187035e-03</stageThreshold>
      <weakClassifiers>
        <_>
          <internalNodes>
            0 -1 6 -1.3138011097908020e-01</internalNodes>
          <leafValues>
            8.4415584802627563e-01 -7.4898785352706909e-01</leafValues></_>
        <_>
          <internalNodes>
            0 -1 10 -1.1304439976811409e-02</internalNodes>
          <leafValues>
            7.5525540113449097e-01 -7.6919001340866089e-01</leafValues></_></weakClassifiers></_>
    <!-- stage 6 -->
    <_>
      <maxWeakCount>2</maxWeakCount>
      <stageThreshold>1.4942334592342377e-01</stageThreshold>
      <weakClassifiers>
        <_>
          <internalNodes>
            0 -1 9 4.5974679291248322e-02</internalNodes>
          <leafValues>
            -7.3087817430496216e-01 7.9315477609634399e-01</leafValues></_>
        <_>
          <internalNodes>
            0 -1 5 -4.1527038812637329e-01</internalNodes>
          <leafValues>
            8.8030153512954712e-01 -5.6313121318817139e-01</leafValues></_></weakClassifiers></_>
    <!-- stage 7 -->
    <_>
      <maxWeakCount>1</maxWeakCount>
      <stageThreshold>6.3101601600646973e-01</stageThreshold>
      <weakClassifiers>
        <_>
          <internalNodes>
            0 -1 8 1.6657432913780212e-01</internalNodes>
          <leafValues>
            -8.8095235824584961e-01 6.3101601600646973e-01</leafValues></_></weakClassifiers></_></stages>
  <features>
    <_>
      <rects>
        <_>
          0 1 20 5 -1.</_>
        <_>
          5 1 10 5 2.</_></rects>
      <tilted>0</tilted></_>
    <_>
      <rects>
        <_>
          0 2 4 14 -1.</_>
        <_>
          2 2 2 14 2.</_></rects>
      <tilted>0</tilted></_>
    <_>
      <rects>
        <_>
          1 19 18 1 -1.</_>
        <_>
          7 19 6 1 2.</_></rects>
      <tilted>0</tilted></_>
    <_>
      <rects>
        <_>
          2 0 17 6 -1.</_>
        <_>
          2 3 17 3 2.</_></rects>
      <tilted>0</tilted></_>
    <_>
      <rects>
        <_>
          3 8 15 6 -1.</_>
        <_>
          8 10 5 2 9.</_></rects>
      <tilted>0</tilted></_>
    <_>
      <rects>
        <_>
          6 6 9 9 -1.</_>
        <_>
          9 9 3 3 9.</_></rects>
      <tilted>0</tilted></_>
    <_>
      <rects>
        <_>
          8 9 12 10 -1.</_>
        <_>
          8 9 6 5 2.</_>
        <_>
          14 14 6 5 2.</_></rects>
      <tilted>0</tilted></_>
    <_>
      <rects>
        <_>
          10 10 2 8 -1.</_>
        <_>
          8 12 2 4 2.</_></rects>
      <tilted>1</tilted></_>
    <_>
      <rects>
        <_>
          11 0 9 15 -1.</_>
        <_>
          14 5 3 5 9.</_></rects>
      <tilted>0</tilted></_>
    <_>
      <rects>
        <_>
          11 10 9 1 -1.</_>
        <_>
          14 13 3 1 3.</_></rects>
      <tilted>1</tilted></_>
    <_>
      <rects>
        <_>
          18 3 2 15 -1.</_>
        <_>
          19 3 1 15 2.</_></rects>
      <tilted>0</tilted></_></features></cascade>
</opencv_storage>
