<?xml version="1.0"?>
<opencv_storage>
<cascade>
  <stageType>BOOST</stageType>
  <featureType>HAAR</featureType>
  <height>32</height>
  <width>32</width>
  <stageParams>
    <boostType>GAB</boostType>
    <minHitRate>9.9500000476837158e-01</minHitRate>
    <maxFalseAlarm>5.0000000000000000e-01</maxFalseAlarm>
    <weightTrimRate>9.4999999999999996e-01</weightTrimRate>
    <maxDepth>1</maxDepth>
    <maxWeakCount>100</maxWeakCount></stageParams>
  <featureParams>
    <maxCatCount>0</maxCatCount>
    <featSize>1</featSize>
    <mode>ALL</mode></featureParams>
  <stageNum>14</stageNum>
  <stages>
    <!-- stage 0 -->
    <_>
      <maxWeakCount>2</maxWeakCount>
      <stageThreshold>3.3153638243675232e-02</stageThreshold>
      <weakClassifiers>
        <_>
          <internalNodes>
            0 -1 24 -1.6037991642951965e-01</internalNodes>
          <leafValues>
            9.8649561405181885e-01 -9.2457735538482666e-01</leafValues></_>
        <_>
          <internalNodes>
            0 -1 5 4.7916799783706665e-02</internalNodes>
          <leafValues>
            -8.7960463762283325e-01 9.5773100852966309e-01</leafValues></_></weakClassifiers></_>
    <!-- stage 1 -->
    <_>
      <maxWeakCount>2</maxWeakCount>
      <stageThreshold>-2.6659779250621796e-02</stageThreshold>
      <weakClassifiers>
        <_>
          <internalNodes>
            0 -1 38 -6.7419007420539856e-02</internalNodes>
          <leafValues>
            9.3285715579986572e-01 -8.6571431159973145e-01</leafValues></_>
        <_>
          <internalNodes>
            0 -1 13 5.8388009667396545e-02</internalNodes>
          <leafValues>
            -8.4976238012313843e-01 8.3905452489852905e-01</leafValues></_></weakClassifiers></_>
    <!-- stage 2 -->
    <_>
      <maxWeakCount>3</maxWeakCount>
      <stageThreshold>-7.9288703203201294e-01</stageThreshold>
      <weakClassifiers>
        <_>
          <internalNodes>
            0 -1 49 5.8494340628385544e-02</internalNodes>
          <leafValues>
            -7.9271709918975830e-01 9.1341990232467651e-01</leafValues></_>
        <_>
          <internalNodes>
            0 -1 42 2.3590326309204102e-02</internalNodes>
          <leafValues>
            -7.7284473180770874e-01 8.8349378108978271e-01</leafValues></_>
        <_>
          <internalNodes>
            0 -1 32 7.2233587503433228e-02</internalNodes>
          <leafValues>
            -7.0877569913864136e-01 7.7267479896545410e-01</leafValues></_></weakClassifiers></_>
    <!-- stage 3 -->
    <_>
      <maxWeakCount>2</maxWeakCount>
      <stageThreshold>-3.9916921406984329e-02</stageThreshold>
      <weakClassifiers>
        <_>
          <internalNodes>
            0 -1 25 -2.3612195253372192e-01</internalNodes>
          <leafValues>
            8.7891739606857300e-01 -7.6724135875701904e-01</leafValues></_>
        <_>
          <internalNodes>
            0 -1 51 -1.7033066600561142e-02</internalNodes>
          <leafValues>
            7.2732448577880859e-01 -7.8925287723541260e-01</leafValues></_></weakClassifiers></_>
    <!-- stage 4 -->
    <_>
      <maxWeakCount>5</maxWeakCount>
      <stageThreshold>-6.8894869089126587e-01</stageThreshold>
      <weakClassifiers>
        <_>
          <internalNodes>
            0 -1 27 6.4974218606948853e-02</internalNodes>
          <leafValues>
            -7.4121403694152832e-01 7.8968793153762817e-01</leafValues></_>
        <_>
          <internalNodes>
            0 -1 6 5.4312594234943390e-02</internalNodes>
          <leafValues>
            -7.2913736104965210e-01 7.2864955663681030e-01</leafValues></_>
        <_>
          <internalNodes>
            0 -1 9 -3.2650079578161240e-02</internalNodes>
          <leafValues>
            -6.6167163848876953e-01 6.8361055850982666e-01</leafValues></_>
        <_>
          <internalNodes>
            0 -1 22 -1.4243736863136292e-01</internalNodes>
          <leafValues>
            6.5654218196868896e-01 -6.4040488004684448e-01</leafValues></_>
        <_>
          <internalNodes>
            0 -1 53 6.0173045843839645e-02</internalNodes>
          <leafValues>
            -5.3055793046951294e-01 7.3819702863693237e-01</leafValues></_></weakClassifiers></_>
    <!-- stage 5 -->
    <_>
      <maxWeakCount>4</maxWeakCount>
      <stageThreshold>-1.3516116142272949e+00</stageThreshold>
      <weakClassifiers>
        <_>
          <internalNodes>
            0 -1 14 1.1803284287452698e-01</internalNodes>
          <leafValues>
            -4.8920863866806030e-01 8.7519747018814087e-01</leafValues></_>
        <_>
          <internalNodes>
            0 -1 21 1.1237968504428864e-01</internalNodes>
          <leafValues>
            -8.3353292942047119e-01 6.2058687210083008e-01</leafValues></_>
        <_>
          <internalNodes>
            0 -1 32 9.5577470958232880e-02</internalNodes>
          <leafValues>
            -5.9544003009796143e-01 6.5561264753341675e-01</leafValues></_>
        <_>
          <internalNodes>
            0 -1 46 -2.2154357284307480e-02</internalNodes>
          <leafValues>
            4.2728665471076965e-01 -8.8754981756210327e-01</leafValues></_></weakClassifiers></_>
    <!-- stage 6 -->
    <_>
      <maxWeakCount>4</maxWeakCount>
      <stageThreshold>-1.3312972784042358e+00</stageThreshold>
      <weakClassifiers>
        <_>
          <internalNodes>
            0 -1 42 2.6300752535462379e-02</internalNodes>
          <leafValues>
            -6.2769228219985962e-01 7.6413792371749878e-01</leafValues></_>
        <_>
          <internalNodes>
            0 -1 1 2.4891387671232224e-02</internalNodes>
          <leafValues>
            -6.9936877489089966e-01 6.5409457683563232e-01</leafValues></_>
        <_>
          <internalNodes>
            0 -1 17 -2.8895187377929688e-01</internalNodes>
          <leafValues>
            6.1028212308883667e-01 -5.9677904844284058e-01</leafValues></_>
        <_>
          <internalNodes>
            0 -1 48 8.2086652517318726e-02</internalNodes>
          <leafValues>
            -7.9928743839263916e-01 5.2160841226577759e-01</leafValues></_></weakClassifiers></_>
    <!-- stage 7 -->
    <_>
      <maxWeakCount>6</maxWeakCount>
      <stageThreshold>-8.1233501434326172e-01</stageThreshold>
      <weakClassifiers>
        <_>
          <internalNodes>
            0 -1 41 5.7881195098161697e-02</internalNodes>
          <leafValues>
            -6.3573884963989258e-01 7.0487481355667114e-01</leafValues></_>
        <_>
          <internalNodes>
            0 -1 55 -4.3935254216194153e-03</internalNodes>
          <leafValues>
            6.6249680519104004e-01 -6.1490130424499512e-01</leafValues></_>
        <_>
          <internalNodes>
            0 -1 54 7.3515109717845917e-02</internalNodes>
          <leafValues>
            -6.9586795568466187e-01 4.6825316548347473e-01</leafValues></_>
        <_>
          <internalNodes>
            0 -1 11 1.0375227034091949e-01</internalNodes>
          <leafValues>
            -7.8309017419815063e-01 4.7798421978950500e-01</leafValues></_>
        <_>
          <internalNodes>
            0 -1 20 -2.1999813616275787e-02</internalNodes>
          <leafValues>
            -7.7890127897262573e-01 3.5150593519210815e-01</leafValues></_>
        <_>
          <internalNodes>
            0 -1 15 9.6000120043754578e-02</internalNodes>
          <leafValues>
            -7.8379988670349121e-01 4.0163621306419373e-01</leafValues></_></weakClassifiers></_>
    <!-- stage 8 -->
    <_>
      <maxWeakCount>4</maxWeakCount>
      <stageThreshold>-4.7850990295410156e-01</stageThreshold>
      <weakClassifiers>
        <_>
          <internalNodes>
            0 -1 12 3.5961128771305084e-02</internalNodes>
          <leafValues>
            -8.5000002384185791e-01 6.1176472902297974e-01</leafValues></_>
        <_>
          <internalNodes>
            0 -1 4 6.1667170375585556e-03</internalNodes>
          <leafValues>
            -7.1148043870925903e-01 5.7556778192520142e-01</leafValues></_>
        <_>
          <internalNodes>
            0 -1 34 8.6315602064132690e-02</internalNodes>
          <leafValues>
            -6.8959099054336548e-01 5.0168102979660034e-01</leafValues></_>
        <_>
          <internalNodes>
            0 -1 50 8.9315325021743774e-02</internalNodes>
          <leafValues>
            -7.0575869083404541e-01 4.8767796158790588e-01</leafValues></_></weakClassifiers></_>
    <!-- stage 9 -->
    <_>
      <maxWeakCount>6</maxWeakCount>
      <stageThreshold>-3.7554979324340820e-01</stageThreshold>
      <weakClassifiers>
        <_>
          <internalNodes>
            0 -1 0 1.1126884818077087e-01</internalNodes>
          <leafValues>
            -6.0225141048431396e-01 6.5156352519989014e-01</leafValues></_>
        <_>
          <internalNodes>
            0 -1 26 -4.3522648513317108e-02</internalNodes>
          <leafValues>
            4.4338288903236389e-01 -8.4681189060211182e-01</leafValues></_>
        <_>
          <internalNodes>
            0 -1 23 -1.2156613171100616e-02</internalNodes>
          <leafValues>
            5.4630684852600098e-01 -6.0516488552093506e-01</leafValues></_>
        <_>
          <internalNodes>
            0 -1 40 -1.4960442204028368e-03</internalNodes>
          <leafValues>
            -3.2323285937309265e-01 9.1150367259979248e-01</leafValues></_>
        <_>
          <internalNodes>
            0 -1 56 -2.5373781099915504e-03</internalNodes>
          <leafValues>
            4.3712398409843445e-01 -6.6503083705902100e-01</leafValues></_>
        <_>
          <internalNodes>
            0 -1 31 -5.4273905698210001e-04</internalNodes>
          <leafValues>
            3.1097242236137390e-01 -8.1284964084625244e-01</leafValues></_></weakClassifiers></_>
    <!-- stage 10 -->
    <_>
      <maxWeakCount>6</maxWeakCount>
      <stageThreshold>-9.1573530435562134e-01</stageThreshold>
      <weakClassifiers>
        <_>
          <internalNodes>
            0 -1 10 8.4069713950157166e-02</internalNodes>
          <leafValues>
            -7.4595844745635986e-01 6.1367726325988770e-01</leafValues></_>
        <_>
          <internalNodes>
            0 -1 8 2.6359591633081436e-02</internalNodes>
          <leafValues>
            -7.1215194463729858e-01 4.9670529365539551e-01</leafValues></_>
        <_>
          <internalNodes>
            0 -1 28 -4.3435040861368179e-03</internalNodes>
          <leafValues>
            -6.5479356050491333e-01 4.1338002681732178e-01</leafValues></_>
        <_>
          <internalNodes>
            0 -1 18 -2.1162140369415283e-01</internalNodes>
          <leafValues>
            5.3805679082870483e-01 -5.7551217079162598e-01</leafValues></_>
        <_>
          <internalNodes>
            0 -1 16 2.3333024728344753e-05</internalNodes>
          <leafValues>
            2.8537917137145996e-01 -8.3973008394241333e-01</leafValues></_>
        <_>
          <internalNodes>
            0 -1 45 -6.3009816221892834e-04</internalNodes>
          <leafValues>
            -7.6476550102233887e-01 2.7844440937042236e-01</leafValues></_></weakClassifiers></_>
    <!-- stage 11 -->
    <_>
      <maxWeakCount>5</maxWeakCount>
      <stageThreshold>-5.3031814098358154e-01</stageThreshold>
      <weakClassifiers>
        <_>
          <internalNodes>
            0 -1 36 -8.0693353083916008e-05</internalNodes>
          <leafValues>
            -9.4202899932861328e-01 5.2631580829620361e-01</leafValues></_>
        <_>
          <internalNodes>
            0 -1 2 1.0056680440902710e-01</internalNodes>
          <leafValues>
            -7.8643429279327393e-01 3.7585914134979248e-01</leafValues></_>
        <_>
          <internalNodes>
            0 -1 19 1.3480366207659245e-02</internalNodes>
          <leafValues>
            -7.9779738187789917e-01 3.0778202414512634e-01</leafValues></_>
        <_>
          <internalNodes>
            0 -1 33 -1.1852880939841270e-02</internalNodes>
          <leafValues>
            2.7870172262191772e-01 -8.8680577278137207e-01</leafValues></_>
        <_>
          <internalNodes>
            0 -1 29 -1.1774455197155476e-02</internalNodes>
          <leafValues>
            -6.8167310953140259e-01 3.0882412195205688e-01</leafValues></_></weakClassifiers></_>
    <!-- stage 12 -->
    <_>
      <maxWeakCount>5</maxWeakCount>
      <stageThreshold>-6.9451153278350830e-01</stageThreshold>
      <weakClassifiers>
        <_>
          <internalNodes>
            0 -1 47 2.6819729246199131e-03</internalNodes>
          <leafValues>
            5.4838711023330688e-01 -9.4701987504959106e-01</leafValues></_>
        <_>
          <internalNodes>
            0 -1 43 -2.0688997581601143e-02</internalNodes>
          <leafValues>
            4.1192397475242615e-01 -6.7489027976989746e-01</leafValues></_>
        <_>
          <internalNodes>
            0 -1 30 -2.2128748241811991e-03</internalNodes>
          <leafValues>
            3.4500408172607422e-01 -8.2589411735534668e-01</leafValues></_>
        <_>
          <internalNodes>
            0 -1 7 9.3172624707221985e-02</internalNodes>
          <leafValues>
            -8.2143789529800415e-01 3.3414289355278015e-01</leafValues></_>
        <_>
          <internalNodes>
            0 -1 44 -1.3362849131226540e-04</internalNodes>
          <leafValues>
            2.4825164675712585e-01 -7.5693440437316895e-01</leafValues></_></weakClassifiers></_>
    <!-- stage 13 -->
    <_>
      <maxWeakCount>5</maxWeakCount>
      <stageThreshold>-3.5379397869110107e-01</stageThreshold>
      <weakClassifiers>
        <_>
          <internalNodes>
            0 -1 35 2.0080840587615967e-01</internalNodes>
          <leafValues>
            -4.3887147307395935e-01 6.7031461000442505e-01</leafValues></_>
        <_>
          <internalNodes>
            0 -1 37 7.7350949868559837e-04</internalNodes>
          <leafValues>
            3.5514554381370544e-01 -8.4416556358337402e-01</leafValues></_>
        <_>
          <internalNodes>
            0 -1 3 -2.1744765341281891e-02</internalNodes>
          <leafValues>
            -7.0338803529739380e-01 3.6532145738601685e-01</leafValues></_>
        <_>
          <internalNodes>
            0 -1 39 3.8724035024642944e-02</internalNodes>
          <leafValues>
            -7.6422947645187378e-01 3.3112379908561707e-01</leafValues></_>
        <_>
          <internalNodes>
            0 -1 52 -2.7992355171591043e-04</internalNodes>
          <leafValues>
            -8.3765077590942383e-01 2.1896496415138245e-01</leafValues></_></weakClassifiers></_></stages>
  <features>
    <_>
      <rects>
        <_>
          0 0 30 12 -1.</_>
        <_>
          10 4 10 4 9.</_></rects>
      <tilted>0</tilted></_>
    <_>
      <rects>
        <_>
          0 4 6 20 -1.</_>
        <_>
          3 4 3 20 2.</_></rects>
      <tilted>0</tilted></_>
    <_>
      <rects>
        <_>
          0 5 16 21 -1.</_>
        <_>
          4 5 8 21 2.</_></rects>
      <tilted>0</tilted></_>
    <_>
      <rects>
        <_>
          0 9 1 15 -1.</_>
        <_>
          0 14 1 5 2.</_></rects>
      <tilted>0</tilted></_>
    <_>
      <rects>
        <_>
          0 12 4 10 -1.</_>
        <_>
          2 12 2 10 2.</_></rects>
      <tilted>0</tilted></_>
    <_>
      <rects>
        <_>
          0 12 16 13 -1.</_>
        <_>
          4 12 8 13 2.</_></rects>
      <tilted>0</tilted></_>
    <_>
      <rects>
        <_>
          0 14 16 7 -1.</_>
        <_>
          4 14 8 7 2.</_></rects>
      <tilted>0</tilted></_>
    <_>
      <rects>
        <_>
          0 20 24 12 -1.</_>
        <_>
          8 24 8 4 9.</_></rects>
      <tilted>0</tilted></_>
    <_>
      <rects>
        <_>
          0 25 18 6 -1.</_>
        <_>
          9 25 9 6 2.</_></rects>
      <tilted>0</tilted></_>
    <_>
      <rects>
        <_>
          1 31 30 1 -1.</_>
        <_>
          11 31 10 1 2.</_></rects>
      <tilted>0</tilted></_>
    <_>
      <rects>
        <_>
          2 2 28 16 -1.</_>
        <_>
          2 6 28 8 2.</_></rects>
      <tilted>0</tilted></_>
    <_>
      <rects>
        <_>
          2 20 30 12 -1.</_>
        <_>
          12 24 10 4 9.</_></rects>
      <tilted>0</tilted></_>
    <_>
      <rects>
        <_>
          4 18 28 12 -1.</_>
        <_>
          4 21 28 6 2.</_></rects>
      <tilted>0</tilted></_>
    <_>
      <rects>
        <_>
          5 0 16 4 -1.</_>
        <_>
          9 4 8 4 2.</_></rects>
      <tilted>1</tilted></_>
    <_>
      <rects>
        <_>
          5 0 16 5 -1.</_>
        <_>
          9 4 8 5 2.</_></rects>
      <tilted>1</tilted></_>
    <_>
      <rects>
        <_>
          5 2 15 5 -1.</_>
        <_>
          10 7 5 5 3.</_></rects>
      <tilted>1</tilted></_>
    <_>
      <rects>
        <_>
          6 4 8 8 -1.</_>
        <_>
          6 4 4 4 2.</_>
        <_>
          10 8 4 4 2.</_></rects>
      <tilted>0</tilted></_>
    <_>
      <rects>
        <_>
          6 12 21 9 -1.</_>
        <_>
          13 15 7 3 9.</_></rects>
      <tilted>0</tilted></_>
    <_>
      <rects>
        <_>
          6 15 21 6 -1.</_>
        <_>
          13 17 7 2 9.</_></rects>
      <tilted>0</tilted></_>
    <_>
      <rects>
        <_>
          7 24 24 8 -1.</_>
        <_>
          13 24 12 8 2.</_></rects>
      <tilted>0</tilted></_>
    <_>
      <rects>
        <_>
          8 0 15 1 -1.</_>
        <_>
          13 0 5 1 2.</_></rects>
      <tilted>0</tilted></_>
    <_>
      <rects>
        <_>
          8 0 24 15 -1.</_>
        <_>
          16 5 8 5 9.</_></rects>
      <tilted>0</tilted></_>
    <_>
      <rects>
        <_>
          8 15 18 6 -1.</_>
        <_>
          14 17 6 2 9.</_></rects>
      <tilted>0</tilted></_>
    <_>
      <rects>
        <_>
          8 28 21 4 -1.</_>
        <_>
          8 30 21 2 2.</_></rects>
      <tilted>0</tilted></_>
    <_>
      <rects>
        <_>
          9 11 15 12 -1.</_>
        <_>
          14 15 5 4 9.</_></rects>
      <tilted>0</tilted></_>
    <_>
      <rects>
        <_>
          9 12 15 12 -1.</_>
        <_>
          14 16 5 4 9.</_></rects>
      <tilted>0</tilted></_>
    <_>
      <rects>
        <_>
          9 17 15 3 -1.</_>
        <_>
          14 18 5 1 9.</_></rects>
      <tilted>0</tilted></_>
    <_>
      <rects>
        <_>
          10 0 17 16 -1.</_>
        <_>
          10 4 17 8 2.</_></rects>
      <tilted>0</tilted></_>
    <_>
      <rects>
        <_>
          12 0 3 1 -1.</_>
        <_>
          13 0 1 1 2.</_></rects>
      <tilted>0</tilted></_>
    <_>
      <rects>
        <_>
          12 0 9 1 -1.</_>
        <_>
          15 0 3 1 2.</_></rects>
      <tilted>0</tilted></_>
    <_>
      <rects>
        <_>
          12 7 8 9 -1.</_>
        <_>
          14 7 4 9 2.</_></rects>
      <tilted>0</tilted></_>
    <_>
      <rects>
        <_>
          12 10 5 3 -1.</_>
        <_>
          11 11 5 1 3.</_></rects>
      <tilted>1</tilted></_>
    <_>
      <rects>
        <_>
          12 12 8 12 -1.</_>
        <_>
          9 15 8 6 2.</_></rects>
      <tilted>1</tilted></_>
    <_>
      <rects>
        <_>
          13 5 8 23 -1.</_>
        <_>
          15 5 4 23 2.</_></rects>
      <tilted>0</tilted></_>
    <_>
      <rects>
        <_>
          13 6 16 14 -1.</_>
        <_>
          13 6 8 7 2.</_>
        <_>
          21 13 8 7 2.</_></rects>
      <tilted>0</tilted></_>
    <_>
      <rects>
        <_>
          14 0 18 18 -1.</_>
        <_>
          20 6 6 6 9.</_></rects>
      <tilted>0</tilted></_>
    <_>
      <rects>
        <_>
          14 6 8 2 -1.</_>
        <_>
          16 8 4 2 2.</_></rects>
      <tilted>1</tilted></_>
    <_>
      <rects>
        <_>
          14 7 1 8 -1.</_>
        <_>
          12 9 1 4 2.</_></rects>
      <tilted>1</tilted></_>
    <_>
      <rects>
        <_>
          14 15 18 14 -1.</_>
        <_>
          14 15 9 7 2.</_>
        <_>
          23 22 9 7 2.</_></rects>
      <tilted>0</tilted></_>
    <_>
      <rects>
        <_>
          14 18 16 12 -1.</_>
        <_>
          14 21 16 6 2.</_></rects>
      <tilted>0</tilted></_>
    <_>
      <rects>
        <_>
          15 16 3 3 -1.</_>
        <_>
          16 16 1 3 2.</_></rects>
      <tilted>0</tilted></_>
    <_>
      <rects>
        <_>
          16 13 3 16 -1.</_>
        <_>
          12 17 3 8 2.</_></rects>
      <tilted>1</tilted></_>
    <_>
      <rects>
        <_>
          17 16 15 1 -1.</_>
        <_>
          22 21 5 1 3.</_></rects>
      <tilted>1</tilted></_>
    <_>
      <rects>
        <_>
          18 1 14 7 -1.</_>
        <_>
          25 1 7 7 2.</_></rects>
      <tilted>0</tilted></_>
    <_>
      <rects>
        <_>
          18 15 10 4 -1.</_>
        <_>
          18 16 10 2 2.</_></rects>
      <tilted>0</tilted></_>
    <_>
      <rects>
        <_>
          19 7 6 4 -1.</_>
        <_>
          22 7 3 4 2.</_></rects>
      <tilted>0</tilted></_>
    <_>
      <rects>
        <_>
          21 7 6 12 -1.</_>
        <_>
          23 9 2 12 3.</_></rects>
      <tilted>1</tilted></_>
    <_>
      <rects>
        <_>
          22 8 8 4 -1.</_>
        <_>
          22 8 4 4 2.</_></rects>
      <tilted>1</tilted></_>
    <_>
      <rects>
        <_>
          23 0 9 30 -1.</_>
        <_>
          26 10 3 10 9.</_></rects>
      <tilted>0</tilted></_>
    <_>
      <rects>
        <_>
          24 0 8 12 -1.</_>
        <_>
          21 3 8 6 2.</_></rects>
      <tilted>1</tilted></_>
    <_>
      <rects>
        <_>
          26 1 6 30 -1.</_>
        <_>
          28 11 2 10 9.</_></rects>
      <tilted>0</tilted></_>
    <_>
      <rects>
        <_>
          26 4 6 24 -1.</_>
        <_>
          29 4 3 24 2.</_></rects>
      <tilted>0</tilted></_>
    <_>
      <rects>
        <_>
          26 21 1 4 -1.</_>
        <_>
          26 21 1 2 2.</_></rects>
      <tilted>1</tilted></_>
    <_>
      <rects>
        <_>
          27 0 4 32 -1.</_>
        <_>
          27 8 4 16 2.</_></rects>
      <tilted>0</tilted></_>
    <_>
      <rects>
        <_>
          29 2 3 15 -1.</_>
        <_>
          24 7 3 5 3.</_></rects>
      <tilted>1</tilted></_>
    <_>
      <rects>
        <_>
          30 7 2 19 -1.</_>
        <_>
          31 7 1 19 2.</_></rects>
      <tilted>0</tilted></_>
    <_>
      <rects>
        <_>
          30 7 2 20 -1.</_>
        <_>
          31 7 1 20 2.</_></rects>
      <tilted>0</tilted></_></features></cascade>
</opencv_storage>
